svm_type c_svc
kernel_type rbf
gamma 0.25
nr_class 2
total_sv 95
rho -0.213209
label 1 -1
nr_sv 51 44
SV
0.3522727093754122 1:-16.5 2:-17.128337 3:-9.6000004 4:-10.147807 
1 1:-21.200001 2:-20.983641 3:-7.0999999 4:-7.1055633 
0.208072732496996 1:-15 2:-15.780458 3:-7.4000001 4:-7.7848568 
0.7780010005198726 1:-19.1 2:-18.57956 3:-6 4:-6.1001895 
1 1:-17.299999 2:-16.280176 3:-7 4:-7.3916775 
0.8532386116280657 1:-17.299999 2:-13.701686 3:-3.9000001 4:-3.9137701 
0.5589956936705021 1:-17.700001 2:-18.792478 3:-6.6999998 4:-6.7885186 
0.3438882789423247 1:-17.1 2:-15.739241 3:-9.3999996 4:-9.8029882 
0.6946299853326514 1:-18.6 2:-17.317977 3:-9.3999996 4:-9.8029882 
0.2528162149082606 1:-13.6 2:-11.761321 3:-7.5999999 4:-7.6585294 
0.7500774068027264 1:-15.4 2:-13.628314 3:-9.3999996 4:-9.8029882 
0.7134159495105855 1:-13.9 2:-11.36738 3:-7 4:-7.1350683 
1 1:-17.799999 2:-11.85999 3:-6.1999998 4:-6.2450738 
1 1:-17.4 2:-16.98279 3:-6 4:-6.2360943 
0.3889432438885935 1:-17.5 2:-15.745839 3:-7.5 4:-7.8578781 
1 1:-13.4 2:-13.750781 3:-4.1999998 4:-4.5408249 
1 1:-17.5 2:-17.114216 3:-5.3000002 4:-5.6249359 
0.1657845681020933 1:-11.5 2:-11.477905 3:-7.0999999 4:-7.1055633 
1 1:-19 2:-19.555445 3:-9.3999996 4:-9.6621408 
1 1:-4.1999998 2:-3.5148541 3:-2.8 4:-3.2843472 
1 1:-11.8 2:-10.682863 3:-4.8000002 4:-5.2412851 
1 1:-13.7 2:-14.108396 3:-5.5 4:-6.0683963 
0.3518897933369891 1:-17.200001 2:-17.323885 3:-5 4:-5.4439676 
0.642780206827707 1:-18.9 2:-17.217308 3:-7.3000002 4:-7.7630786 
1 1:-15 2:-15.131807 3:-7.3000002 4:-7.7630786 
0.3031223735473589 1:-9.8000002 2:-10.567778 3:-5.9000001 4:-6.0785037 
1 1:-14.9 2:-15.420371 3:-7.3000002 4:-7.7630786 
1 1:-6 2:-6.8454383 3:-5.9000001 4:-6.0785037 
1 1:-14.5 2:-13.81495 3:-7.3000002 4:-7.5169216 
1 1:-11.5 2:-11.477905 3:-7.0999999 4:-7.1055633 
0.7254521714891163 1:-21.799999 2:-22.296517 3:-11.7 4:-12.112377 
1 1:-15 2:-15.39813 3:-3.9000001 4:-4.0912637 
1 1:-7.6999998 2:-7.4076196 3:-4.5 4:-4.8828956 
1 1:-10.4 2:-11.235674 3:-5.1999998 4:-5.6552283 
0.4298385296182197 1:-17.9 2:-18.213135 3:-11.1 4:-11.162941 
1 1:-11.5 2:-11.701546 3:-5.3000002 4:-5.6765216 
1 1:-11 2:-10.815483 3:-6 4:-6.6500541 
1 1:-9.3999996 2:-9.2392671 3:-5.1999998 4:-5.5771663 
0.7948528037570864 1:-21.1 2:-16.495791 3:-4.0999999 4:-4.3667593 
1 1:-8.6000004 2:-8.3087513 3:-4.9000001 4:-5.162369 
1 1:-14.5 2:-13.943584 3:-7.4000001 4:-7.8547149 
0.6086478153391098 1:-15 2:-15.598677 3:-11.2 4:-11.244822 
0.7660706527234253 1:-16.9 2:-18.214506 3:-9.6000004 4:-9.8386735 
0.4513576134546388 1:-17.200001 2:-17.419022 3:-11.8 4:-12.169291 
1 1:-11.2 2:-9.3369137 3:-7.5 4:-7.5357662 
1 1:-10.5 2:-10.630668 3:-9 4:-9.0326582 
0.4020468310361366 1:-17.4 2:-18.51037 3:-8.3999996 4:-8.8103535 
1 1:-15 2:-14.900846 3:-4.9000001 4:-5.162369 
0.4189608753549755 1:-14 2:-13.475333 3:-4.9000001 4:-5.162369 
0.0980264147384767 1:-8.3000002 2:-8.7499305 3:-4.9000001 4:-5.162369 
0.7055597510252812 1:-24 2:-23.99695 3:-11.2 4:-11.244885 
-1 1:-17.1 2:-17.410216 3:-9.3999996 4:-9.6955229 
-1 1:-14.3 2:-14.929294 3:-7.4000001 4:-7.9488893 
-1 1:-16.5 2:-16.000303 3:-6.0999999 4:-6.1481836 
-1 1:-17.9 2:-17.472588 3:-6.6999998 4:-7.0957052 
-1 1:-11.7 2:-10.82735 3:-4.5999999 4:-4.6752356 
-1 1:-21.299999 2:-17.388852 3:-6.5999999 4:-6.6355379 
-0.460651998012411 1:-15.7 2:-13.443525 3:-7.0999999 4:-7.4602121 
-1 1:-15.7 2:-13.822906 3:-7.3000002 4:-7.3241363 
-1 1:-20.299999 2:-13.014003 3:-6.6999998 4:-6.8935152 
-1 1:-15.9 2:-15.448349 3:-4.1999998 4:-4.5408249 
-1 1:-15.7 2:-13.822906 3:-7.3000002 4:-7.3241363 
-1 1:-10.8 2:-10.06098 3:-6.0999999 4:-6.28964 
-1 1:-6.4000001 2:-6.4707662 3:-6.1999998 4:-6.3602153 
-1 1:-14.7 2:-13.677075 3:-7.3000002 4:-7.7630786 
-1 1:-10.8 2:-11.246324 3:-7 4:-7.4242398 
-1 1:-20 2:-20.105063 3:-6.5999999 4:-7.027422 
-1 1:-17.200001 2:-16.84058 3:-5.9000001 4:-6.4204341 
-1 1:-13.1 2:-13.348799 3:-5.1999998 4:-5.6921657 
-1 1:-7.6999998 2:-6.5740835 3:-3.7 4:-4.593491 
-1 1:-14.8 2:-15.386405 3:-5.9000001 4:-6.4204341 
-1 1:-10.6 2:-10.585054 3:-4.9000001 4:-5.3861728 
-0.856438588739861 1:-16.799999 2:-15.439706 3:-5.9000001 4:-6.3202097 
-0.3907828077901767 1:-7.5999999 2:-8.0148681 3:-1.9 4:-2.6143133 
-1 1:-19.799999 2:-20.297223 3:-9.6999998 4:-10.114338 
-1 1:-13.3 2:-13.422596 3:-3.9000001 4:-4.0912637 
-1 1:-7.6999998 2:-7.762212 3:-4.5 4:-4.8828956 
-0.5176003812577477 1:-6.5 2:-7.4459624 3:-2.5999999 4:-2.8081161 
-1 1:-14 2:-14.253346 3:-3 4:-3.3567026 
-0.4016119641695832 1:-7 2:-8.2439873 3:-1.2 4:-1.3134858 
-1 1:-11.9 2:-11.2449 3:-1.4 4:-1.5317551 
-1 1:-11.1 2:-10.66915 3:-4.5 4:-4.6117992 
-1 1:-13.4 2:-9.1014951 3:-0.40000001 4:-0.61897651 
-1 1:-3.2 2:-3.9838454 3:-1.3 4:-1.453835 
-1 1:-11.5 2:-10.437499 3:-7.9000001 4:-8.3515843 
-1 1:-9.6999998 2:-8.9562327 3:-4.1999998 4:-4.6264045 
-0.3647783930594326 1:-4 2:-4.3950149 3:0 4:-0.17902881 
-1 1:-12.1 2:-13.049527 3:-9.6000004 4:-9.8386735 
-1 1:-18.799999 2:-19.190762 3:-9.6999998 4:-9.7061201 
-1 1:-6.1999998 2:-4.4896442 3:-1.6 4:-2.0873616 
-0.3295416050112801 1:-4.5 2:-4.755394 3:0 4:0.12816172 
-0.05851143371385284 1:-6.5999999 2:-6.7021009 3:-2.5999999 4:-2.7425642 
-0.6722434687303455 1:-6 2:-5.8561002 3:0 4:0.07246244 
-0.7065815869419151 1:-7.8000002 2:-7.2847743 3:-0.40000001 4:-0.66091009 
-1 1:-12.4 2:-10.454974 3:-5.9000001 4:-6.2853267 
