svm_type c_svc
kernel_type rbf
gamma 0.25
nr_class 2
total_sv 165
rho -0.00669726
label 1 -1
nr_sv 82 83
SV
1 1:-10 2:-11.060664 3:-5.8000002 4:-6.4254354 
0.3160293758690861 1:-21.799999 2:-22.296517 3:-11.7 4:-12.112377 
1 1:-15 2:-15.39813 3:-3.9000001 4:-4.0912637 
1 1:-10.4 2:-11.235674 3:-5.1999998 4:-5.6552283 
1 1:-9.8999996 2:-9.2326845 3:-5.1999998 4:-5.6552283 
0.0640382088576289 1:-8.3000002 2:-7.8577887 3:-5.1999998 4:-5.6552283 
0.6408428193743734 1:-15.8 2:-16.285067 3:-7.1999998 4:-7.5899173 
0.1843704118573342 1:-13.7 2:-14.203704 3:-9.3999996 4:-9.6435056 
1 1:-16 2:-14.015747 3:-8.1000004 4:-8.6018289 
1 1:-20.299999 2:-20.478628 3:-11.2 4:-11.244822 
0.7114181002235387 1:-11.8 2:-12.315349 3:-7.0999999 4:-7.880408 
1 1:-12.5 2:-13.18405 3:-4.5999999 4:-4.7484159 
1 1:-8.8000002 2:-9.689336 3:-8.1999998 4:-8.5027432 
1 1:-12.9 2:-13.470904 3:-9.6000004 4:-10.009465 
0.4033449362377138 1:-20.299999 2:-20.511775 3:-11.3 4:-11.363616 
1 1:-14.2 2:-14.518539 3:-11.1 4:-11.162941 
0.7185314618150531 1:-12.5 2:-13.727476 3:-7.0999999 4:-7.5570203 
0.4895647156563165 1:-16.1 2:-16.889971 3:-7.4000001 4:-7.8646065 
0.9944305535485891 1:-29.799999 2:-30.607999 3:-13.4 4:-13.447478 
0.71273704103559 1:-16 2:-15.343534 3:-12.4 4:-12.413078 
0.03118297669782452 1:-17.4 2:-16.639165 3:-9.3000002 4:-9.3641361 
1 1:-11.4 2:-11.064681 3:-4.4000001 4:-4.659383 
1 1:-11.1 2:-10.552873 3:-4.4000001 4:-4.659383 
1 1:-21.799999 2:-21.959128 3:-9 4:-9.0355348 
1 1:-8.5 2:-8.7876532 3:-7 4:-7.0342528 
1 1:-12.3 2:-10.629669 3:-5.9000001 4:-6.5357708 
1 1:-12.2 2:-11.50147 3:-7.9000001 4:-8.6569018 
1 1:-7.9000001 2:-6.3329136 3:-3.3 4:-4.1090161 
0.669737073063974 1:-21.200001 2:-20.656379 3:-9.6000004 4:-9.9516657 
1 1:-27.299999 2:-25.278696 3:-9.3999996 4:-9.8029882 
0.7802431930638891 1:-24.299999 2:-24.126296 3:-9.3999996 4:-9.6595965 
0.5411208029437669 1:-20.700001 2:-21.247015 3:-9.3999996 4:-9.6595965 
0.9936249011304463 1:-25.1 2:-23.14411 3:-5.9000001 4:-6.181651 
1 1:-11.7 2:-12.038628 3:-6.8000002 4:-6.8486972 
0.1343657645938359 1:-21.5 2:-17.488668 3:-5.5 4:-5.9347216 
0.9824738460050833 1:-9.8000002 2:-9.5430492 3:-7.4000001 4:-7.9296021 
0.7885713933352008 1:-21.799999 2:-18.056048 3:-5.8000002 4:-6.4079861 
0.2901658557986936 1:-14.4 2:-15.177297 3:-7.4000001 4:-7.8574418 
0.9521577941501069 1:-26.700001 2:-23.624101 3:-8.8000002 4:-8.8458606 
0.3293956113844741 1:-10.2 2:-10.585803 3:-7.6999998 4:-7.8338032 
0.8958450423919605 1:-25.799999 2:-26.111398 3:-8.3000002 4:-8.3725883 
0.07436227381478251 1:-15.8 2:-16.671097 3:-11.2 4:-11.244822 
1 1:-13.8 2:-12.106543 3:-6.4000001 4:-6.6692873 
1 1:-12.3 2:-9.4513712 3:-5.5 4:-5.5206054 
0.5941976029823046 1:-14.2 2:-15.237777 3:-8.6999998 4:-8.760578 
1 1:-3.9000001 2:-5.4197847 3:-0.80000001 4:-1.1741244 
1 1:-12.1 2:-11.065066 3:-4.9000001 4:-5.3336583 
1 1:-7 2:-6.9935672 3:-3.9000001 4:-4.3562648 
1 1:-17.9 2:-18.213135 3:-11.1 4:-11.162941 
1 1:-11.5 2:-11.701546 3:-5.3000002 4:-5.6765216 
1 1:-13 2:-12.98716 3:-6.3000002 4:-6.744107 
1 1:-9.3999996 2:-9.2392671 3:-5.1999998 4:-5.5771663 
1 1:-21.1 2:-16.495791 3:-4.0999999 4:-4.3667593 
1 1:-8.6000004 2:-8.3087513 3:-4.9000001 4:-5.162369 
1 1:-9.3999996 2:-10.467048 3:-5.5999999 4:-5.9696425 
0.7169106044752979 1:-14.5 2:-13.943584 3:-7.4000001 4:-7.8547149 
0.2326320962305423 1:-16.9 2:-18.214506 3:-9.6000004 4:-9.8386735 
0.3558421391239507 1:-17.200001 2:-17.419022 3:-11.8 4:-12.169291 
1 1:-11.2 2:-9.3369137 3:-7.5 4:-7.5357662 
1 1:-10.5 2:-10.630668 3:-9 4:-9.0326582 
1 1:-17.4 2:-18.51037 3:-8.3999996 4:-8.8103535 
1 1:-15 2:-14.900846 3:-4.9000001 4:-5.162369 
1 1:-14 2:-13.475333 3:-4.9000001 4:-5.162369 
1 1:-8.3000002 2:-8.7499305 3:-4.9000001 4:-5.162369 
0.7364975171235749 1:-24 2:-23.99695 3:-11.2 4:-11.244885 
0.2482476774376674 1:-16.299999 2:-16.866769 3:-7.5 4:-7.9139835 
1 1:-9.6999998 2:-9.0105691 3:-4.3000002 4:-4.5419877 
1 1:-19.4 2:-18.226354 3:-9.5 4:-9.9644539 
1 1:-12.3 2:-11.570924 3:-7.4000001 4:-7.9296021 
0.3801836706517895 1:-16.200001 2:-15.639697 3:-9.5 4:-9.9644539 
1 1:-8.8999996 2:-7.3195139 3:-1.3 4:-1.3444603 
0.7568663877935913 1:-14.7 2:-12.261966 3:-7.8000002 4:-8.6061534 
1 1:-9.1000004 2:-7.67734 3:-5.6999998 4:-6.2669124 
1 1:-12.7 2:-13.64587 3:-9.5 4:-9.9016461 
0.03847428601319859 1:-15.9 2:-16.756548 3:-9.5 4:-9.9016461 
1 1:-12.2 2:-13.358266 3:-9.5 4:-9.9016461 
0.7121112960950515 1:-13.3 2:-12.983408 3:-9.5 4:-9.9159842 
1 1:-22.700001 2:-21.209273 3:-11.2 4:-11.244822 
0.3134985125431149 1:-15 2:-15.496045 3:-10.1 4:-10.708958 
1 1:-17.799999 2:-16.009206 3:-7.9000001 4:-8.0629511 
1 1:-18.700001 2:-18.740369 3:-6.0999999 4:-6.5411155 
1 1:-16.9 2:-16.171629 3:-6.9000001 4:-7.3330948 
-1 1:-19.799999 2:-20.297223 3:-9.6999998 4:-10.114338 
-0.832073015203165 1:-13.3 2:-13.422596 3:-3.9000001 4:-4.0912637 
-0.1763268144500612 1:-6.5 2:-7.4459624 3:-2.5999999 4:-2.8081161 
-0.1347877270086633 1:-8.3999996 2:-7.4336736 3:-2.5999999 4:-2.8081161 
-1 1:-10.3 2:-10.227121 3:-4.8000002 4:-5.2196135 
-0.1343472351672967 1:-11.1 2:-11.621342 3:-4.0999999 4:-4.1318312 
-1 1:-11.8 2:-12.281171 3:-9.3999996 4:-9.6435056 
-1 1:-16 2:-12.678208 3:-7.6999998 4:-8.0022419 
-1 1:-16.299999 2:-16.482636 3:-7.1999998 4:-7.2491996 
-0.1198513439210449 1:-5.5999999 2:-6.2038319 3:-1.1 4:-1.8580127 
-0.594179545233766 1:-10.6 2:-11.003239 3:-4.5999999 4:-4.7696308 
-1 1:-8.3999996 2:-8.9955263 3:-7.6999998 4:-8.0261637 
-1 1:-13 2:-13.521631 3:-9.3000002 4:-9.7101781 
-1 1:-19.1 2:-19.410171 3:-11.3 4:-11.363616 
-1 1:-13.8 2:-14.128285 3:-10.7 4:-10.814964 
-0.2688652877361452 1:-7.6999998 2:-7.3578366 3:-1 4:-1.8722284 
-0.9669245679166973 1:-9.6000004 2:-9.6605553 3:-1 4:-1.8722284 
-1 1:-12.5 2:-13.344412 3:-3.8 4:-4.3536759 
-1 1:-13.9 2:-14.439549 3:-6.4000001 4:-6.6769341 
-1 1:-27.1 2:-27.913536 3:-10.7 4:-10.835253 
-1 1:-11.3 2:-10.712438 3:-9 4:-9.1404502 
-1 1:-12.7 2:-12.005944 3:-5.3000002 4:-5.319329 
-1 1:-11.1 2:-11.033572 3:-4.4000001 4:-4.659383 
-1 1:-18.4 2:-18.600832 3:-7.0999999 4:-7.1502485 
-0.9611819577008398 1:-6.9000001 2:-7.8683811 3:-4.0999999 4:-4.3058434 
-0.2076174562216603 1:-7.8000002 2:-6.1941168 3:-1.4 4:-1.4480303 
-1 1:-8.1000004 2:-8.5329094 3:-3.7 4:-4.0910725 
-1 1:-11.8 2:-11.092771 3:-7.5 4:-8.1926701 
-0.2624473110916647 1:-6.1999998 2:-4.5435239 3:-2.2 4:-2.6822136 
-1 1:-14.8 2:-14.316682 3:-3.2 4:-3.6358937 
-1 1:-27 2:-24.957519 3:-9.1000004 4:-9.4008778 
-1 1:-17.9 2:-17.733642 3:-5.5 4:-5.5431394 
-0.04686786109429748 1:-17.6 2:-17.441478 3:-5.5 4:-5.5431394 
-1 1:-14 2:-14.56621 3:-5.5 4:-5.5431394 
-0.3140184786308568 1:-18.4 2:-15.186835 3:-4 4:-4.2904276 
-1 1:-11.7 2:-11.937128 3:-6.8000002 4:-6.8486972 
-0.8592320588010918 1:-19.1 2:-14.883726 3:-5.5 4:-5.9347216 
-1 1:-9.3000002 2:-8.99389 3:-7.4000001 4:-7.9296021 
-0.749870603130757 1:-18.799999 2:-14.646837 3:-3.3 4:-3.6655579 
-1 1:-10.4 2:-10.827866 3:-5.8000002 4:-5.8382166 
-1 1:-12 2:-12.57248 3:-6.1999998 4:-6.2410248 
-1 1:-11.8 2:-11.031234 3:-6.1999998 4:-6.2410248 
-1 1:-20.5 2:-17.534654 3:-2.5999999 4:-3.106906 
-1 1:-8.3999996 2:-8.8405033 3:-5.4000001 4:-5.6519132 
-1 1:-22.700001 2:-23.067894 3:-8.3000002 4:-8.3725883 
-1 1:-13.6 2:-14.472281 3:-9 4:-9.0479302 
-1 1:-10.1 2:-10.929321 3:-5.1999998 4:-5.6192697 
-1 1:-15.3 2:-12.724198 3:-6.4000001 4:-6.6692873 
-1 1:-10.2 2:-7.9965974 3:-5.5 4:-5.6189352 
-1 1:-4 2:-5.5208074 3:-0.89999998 4:-1.340251 
-1 1:-10.9 2:-9.7170105 3:-4.6999998 4:-4.8775346 
-1 1:-9.1999998 2:-9.1896947 3:-6.0999999 4:-6.5411155 
-1 1:-7 2:-6.9935672 3:-3.9000001 4:-4.3562648 
-0.3762983012057802 1:-7 2:-8.2439873 3:-1.2 4:-1.3134858 
-0.8873788078624862 1:-11.1 2:-10.66915 3:-4.5 4:-4.6117992 
-0.9905153448326435 1:-13.4 2:-9.1014951 3:-0.40000001 4:-0.61897651 
-0.4875337925430523 1:-3.2 2:-3.9838454 3:-1.3 4:-1.453835 
-1 1:-11.5 2:-10.437499 3:-7.9000001 4:-8.3515843 
-1 1:-9.6999998 2:-8.9562327 3:-4.1999998 4:-4.6264045 
-0.5654552423170136 1:-4 2:-4.3950149 3:0 4:-0.17902881 
-1 1:-12.1 2:-13.049527 3:-9.6000004 4:-9.8386735 
-1 1:-18.799999 2:-19.190762 3:-9.6999998 4:-9.7061201 
-0.2459717606881453 1:-6.1999998 2:-4.4896442 3:-1.6 4:-2.0873616 
-0.2418620284423952 1:-4.5 2:-4.755394 3:0 4:0.12816172 
-0.2990202698151522 1:-6 2:-5.8561002 3:0 4:0.07246244 
-0.7712954803063756 1:-7.8000002 2:-7.2847743 3:-0.40000001 4:-0.66091009 
-1 1:-12.4 2:-10.454974 3:-5.9000001 4:-6.2853267 
-1 1:-13.6 2:-12.481805 3:-6.5 4:-6.5740228 
-0.0630387866139651 1:-7.6999998 2:-6.690984 3:-3.3 4:-3.4786726 
-0.5099351745454543 1:-9.3999996 2:-8.6429633 3:-3.5 4:-3.8471714 
-1 1:-16.9 2:-15.51671 3:-8.1999998 4:-8.2352051 
-1 1:-17.9 2:-16.897538 3:-7 4:-7.2016626 
-0.6805227441927596 1:-6.6999998 2:-5.1393107 3:-4.1999998 4:-4.3394812 
-0.2041763321775971 1:-8.3000002 2:-5.540027 3:-2 4:-2.2793138 
-0.2294202257773411 1:-6.8000002 2:-5.4341908 3:0 4:-0.38373078 
-0.6946447097445477 1:-5 2:-5.1275553 3:-5 4:-5.0091173 
-1 1:-7.0999999 2:-7.6744192 3:-6.9000001 4:-6.9050353 
-0.5660371311627083 1:-11.5 2:-11.192411 3:-2.9000001 4:-3.2345671 
-1 1:-22.700001 2:-21.209273 3:-10.4 4:-10.404506 
-0.7081834316767885 1:-3.4000001 2:-4.0843012 3:-2.8 4:-2.8209912 
-1 1:-8.5 2:-5.6315267 3:-3 4:-3.124353 
-1 1:-12 2:-12.228291 3:-6.4000001 4:-6.4678507 
-0.6341351161071324 1:-14.2 2:-14.240055 3:-2 4:-2.085454 
